#pragma once
//#include <cstdarg>
namespace Eloquent {
    namespace ML {
        namespace Port {
            class RandomForest {
                public:
                    /**
                    * Predict class for features vector
                    */
                    int predict(float *x) {
                        uint8_t votes[4] = { 0 };
                        // tree #1
                        if (x[57] <= -1257.0) {
                            if (x[28] <= 13604.0) {
                                if (x[59] <= -6305.0) {
                                    if (x[16] <= -12196.0) {
                                        votes[3] += 1;
                                    }

                                    else {
                                        votes[1] += 1;
                                    }
                                }

                                else {
                                    if (x[16] <= -4882.0) {
                                        votes[3] += 1;
                                    }

                                    else {
                                        if (x[24] <= 14906.0) {
                                            if (x[45] <= -1568.0) {
                                                if (x[34] <= 576.5) {
                                                    votes[3] += 1;
                                                }

                                                else {
                                                    if (x[44] <= -4708.0) {
                                                        votes[2] += 1;
                                                    }

                                                    else {
                                                        votes[0] += 1;
                                                    }
                                                }
                                            }

                                            else {
                                                if (x[22] <= 18250.0) {
                                                    if (x[17] <= 5062.0) {
                                                        votes[1] += 1;
                                                    }

                                                    else {
                                                        votes[3] += 1;
                                                    }
                                                }

                                                else {
                                                    votes[2] += 1;
                                                }
                                            }
                                        }

                                        else {
                                            if (x[2] <= 3744.0) {
                                                if (x[23] <= 13034.0) {
                                                    votes[0] += 1;
                                                }

                                                else {
                                                    votes[3] += 1;
                                                }
                                            }

                                            else {
                                                if (x[30] <= 2551.5) {
                                                    votes[2] += 1;
                                                }

                                                else {
                                                    votes[1] += 1;
                                                }
                                            }
                                        }
                                    }
                                }
                            }

                            else {
                                if (x[51] <= -7329.0) {
                                    if (x[22] <= 13246.0) {
                                        votes[1] += 1;
                                    }

                                    else {
                                        if (x[17] <= -1496.0) {
                                            votes[3] += 1;
                                        }

                                        else {
                                            votes[2] += 1;
                                        }
                                    }
                                }

                                else {
                                    if (x[0] <= -102.0) {
                                        if (x[12] <= -1344.0) {
                                            votes[3] += 1;
                                        }

                                        else {
                                            if (x[1] <= 1010.0) {
                                                if (x[33] <= -2507.0) {
                                                    votes[1] += 1;
                                                }

                                                else {
                                                    votes[0] += 1;
                                                }
                                            }

                                            else {
                                                votes[2] += 1;
                                            }
                                        }
                                    }

                                    else {
                                        if (x[13] <= -1232.0) {
                                            if (x[40] <= -4298.5) {
                                                votes[3] += 1;
                                            }

                                            else {
                                                if (x[40] <= 4074.0) {
                                                    votes[1] += 1;
                                                }

                                                else {
                                                    votes[3] += 1;
                                                }
                                            }
                                        }

                                        else {
                                            if (x[33] <= 3045.5) {
                                                if (x[56] <= -1679.0) {
                                                    if (x[15] <= 6510.0) {
                                                        votes[2] += 1;
                                                    }

                                                    else {
                                                        votes[3] += 1;
                                                    }
                                                }

                                                else {
                                                    if (x[16] <= 3384.0) {
                                                        if (x[59] <= -1534.0) {
                                                            votes[2] += 1;
                                                        }

                                                        else {
                                                            if (x[39] <= -446.5) {
                                                                votes[3] += 1;
                                                            }

                                                            else {
                                                                if (x[22] <= 16444.0) {
                                                                    votes[0] += 1;
                                                                }

                                                                else {
                                                                    votes[2] += 1;
                                                                }
                                                            }
                                                        }
                                                    }

                                                    else {
                                                        votes[3] += 1;
                                                    }
                                                }
                                            }

                                            else {
                                                if (x[5] <= 5102.0) {
                                                    if (x[4] <= -134.0) {
                                                        votes[3] += 1;
                                                    }

                                                    else {
                                                        votes[2] += 1;
                                                    }
                                                }

                                                else {
                                                    votes[1] += 1;
                                                }
                                            }
                                        }
                                    }
                                }
                            }
                        }

                        else {
                            if (x[51] <= 1133.5) {
                                if (x[57] <= 725.0) {
                                    if (x[18] <= 3058.0) {
                                        if (x[37] <= 1217.0) {
                                            if (x[31] <= 2389.5) {
                                                if (x[54] <= -3208.0) {
                                                    if (x[57] <= -841.0) {
                                                        votes[3] += 1;
                                                    }

                                                    else {
                                                        votes[1] += 1;
                                                    }
                                                }

                                                else {
                                                    if (x[36] <= -1170.5) {
                                                        if (x[26] <= 15402.0) {
                                                            votes[2] += 1;
                                                        }

                                                        else {
                                                            votes[0] += 1;
                                                        }
                                                    }

                                                    else {
                                                        if (x[53] <= 2935.5) {
                                                            if (x[41] <= 4152.5) {
                                                                if (x[3] <= -1376.0) {
                                                                    votes[2] += 1;
                                                                }

                                                                else {
                                                                    if (x[38] <= -1624.5) {
                                                                        votes[2] += 1;
                                                                    }

                                                                    else {
                                                                        if (x[30] <= 2741.0) {
                                                                            if (x[42] <= -2550.0) {
                                                                                votes[3] += 1;
                                                                            }

                                                                            else {
                                                                                if (x[59] <= -1555.0) {
                                                                                    if (x[21] <= 14510.0) {
                                                                                        votes[2] += 1;
                                                                                    }

                                                                                    else {
                                                                                        if (x[43] <= -314.0) {
                                                                                            votes[0] += 1;
                                                                                        }

                                                                                        else {
                                                                                            votes[2] += 1;
                                                                                        }
                                                                                    }
                                                                                }

                                                                                else {
                                                                                    if (x[28] <= 13810.0) {
                                                                                        if (x[37] <= -109.5) {
                                                                                            votes[2] += 1;
                                                                                        }

                                                                                        else {
                                                                                            votes[0] += 1;
                                                                                        }
                                                                                    }

                                                                                    else {
                                                                                        if (x[39] <= -522.0) {
                                                                                            if (x[18] <= 1230.0) {
                                                                                                if (x[11] <= 1252.0) {
                                                                                                    votes[2] += 1;
                                                                                                }

                                                                                                else {
                                                                                                    votes[0] += 1;
                                                                                                }
                                                                                            }

                                                                                            else {
                                                                                                votes[0] += 1;
                                                                                            }
                                                                                        }

                                                                                        else {
                                                                                            if (x[52] <= -2015.0) {
                                                                                                if (x[21] <= 16808.0) {
                                                                                                    votes[0] += 1;
                                                                                                }

                                                                                                else {
                                                                                                    votes[2] += 1;
                                                                                                }
                                                                                            }

                                                                                            else {
                                                                                                if (x[59] <= -612.0) {
                                                                                                    if (x[39] <= 531.0) {
                                                                                                        votes[0] += 1;
                                                                                                    }

                                                                                                    else {
                                                                                                        if (x[10] <= 1276.0) {
                                                                                                            votes[0] += 1;
                                                                                                        }

                                                                                                        else {
                                                                                                            votes[3] += 1;
                                                                                                        }
                                                                                                    }
                                                                                                }

                                                                                                else {
                                                                                                    votes[0] += 1;
                                                                                                }
                                                                                            }
                                                                                        }
                                                                                    }
                                                                                }
                                                                            }
                                                                        }

                                                                        else {
                                                                            votes[2] += 1;
                                                                        }
                                                                    }
                                                                }
                                                            }

                                                            else {
                                                                votes[3] += 1;
                                                            }
                                                        }

                                                        else {
                                                            votes[3] += 1;
                                                        }
                                                    }
                                                }
                                            }

                                            else {
                                                if (x[50] <= -3173.5) {
                                                    votes[2] += 1;
                                                }

                                                else {
                                                    votes[0] += 1;
                                                }
                                            }
                                        }

                                        else {
                                            if (x[6] <= 468.0) {
                                                votes[2] += 1;
                                            }

                                            else {
                                                if (x[14] <= -84.0) {
                                                    if (x[15] <= -632.0) {
                                                        votes[1] += 1;
                                                    }

                                                    else {
                                                        votes[3] += 1;
                                                    }
                                                }

                                                else {
                                                    votes[0] += 1;
                                                }
                                            }
                                        }
                                    }

                                    else {
                                        if (x[39] <= -2829.5) {
                                            votes[0] += 1;
                                        }

                                        else {
                                            if (x[57] <= 385.5) {
                                                if (x[14] <= 5264.0) {
                                                    if (x[43] <= -578.5) {
                                                        if (x[10] <= -5772.0) {
                                                            votes[0] += 1;
                                                        }

                                                        else {
                                                            if (x[18] <= 3954.0) {
                                                                if (x[50] <= 3296.0) {
                                                                    votes[0] += 1;
                                                                }

                                                                else {
                                                                    votes[3] += 1;
                                                                }
                                                            }

                                                            else {
                                                                votes[3] += 1;
                                                            }
                                                        }
                                                    }

                                                    else {
                                                        votes[3] += 1;
                                                    }
                                                }

                                                else {
                                                    votes[0] += 1;
                                                }
                                            }

                                            else {
                                                votes[0] += 1;
                                            }
                                        }
                                    }
                                }

                                else {
                                    if (x[36] <= 3286.5) {
                                        if (x[26] <= 14212.0) {
                                            if (x[30] <= 3134.5) {
                                                if (x[31] <= 166.5) {
                                                    if (x[31] <= -1760.5) {
                                                        votes[3] += 1;
                                                    }

                                                    else {
                                                        if (x[57] <= 876.5) {
                                                            votes[2] += 1;
                                                        }

                                                        else {
                                                            if (x[6] <= 1154.0) {
                                                                votes[3] += 1;
                                                            }

                                                            else {
                                                                votes[0] += 1;
                                                            }
                                                        }
                                                    }
                                                }

                                                else {
                                                    votes[3] += 1;
                                                }
                                            }

                                            else {
                                                votes[2] += 1;
                                            }
                                        }

                                        else {
                                            if (x[25] <= 14740.0) {
                                                if (x[36] <= -1407.0) {
                                                    if (x[8] <= 74.0) {
                                                        votes[1] += 1;
                                                    }

                                                    else {
                                                        votes[3] += 1;
                                                    }
                                                }

                                                else {
                                                    if (x[51] <= -341.0) {
                                                        if (x[6] <= -352.0) {
                                                            votes[2] += 1;
                                                        }

                                                        else {
                                                            votes[0] += 1;
                                                        }
                                                    }

                                                    else {
                                                        if (x[30] <= 406.0) {
                                                            if (x[38] <= -643.0) {
                                                                votes[2] += 1;
                                                            }

                                                            else {
                                                                votes[1] += 1;
                                                            }
                                                        }

                                                        else {
                                                            if (x[48] <= 1182.0) {
                                                                votes[0] += 1;
                                                            }

                                                            else {
                                                                votes[3] += 1;
                                                            }
                                                        }
                                                    }
                                                }
                                            }

                                            else {
                                                if (x[16] <= 3432.0) {
                                                    if (x[21] <= 18030.0) {
                                                        if (x[58] <= 1028.5) {
                                                            if (x[1] <= 1906.0) {
                                                                votes[2] += 1;
                                                            }

                                                            else {
                                                                votes[3] += 1;
                                                            }
                                                        }

                                                        else {
                                                            votes[1] += 1;
                                                        }
                                                    }

                                                    else {
                                                        votes[3] += 1;
                                                    }
                                                }

                                                else {
                                                    if (x[35] <= -3059.0) {
                                                        votes[1] += 1;
                                                    }

                                                    else {
                                                        votes[3] += 1;
                                                    }
                                                }
                                            }
                                        }
                                    }

                                    else {
                                        if (x[32] <= 866.0) {
                                            votes[3] += 1;
                                        }

                                        else {
                                            if (x[45] <= -299.0) {
                                                votes[1] += 1;
                                            }

                                            else {
                                                votes[2] += 1;
                                            }
                                        }
                                    }
                                }
                            }

                            else {
                                if (x[24] <= 13318.0) {
                                    if (x[53] <= 2646.0) {
                                        if (x[18] <= 1244.0) {
                                            votes[3] += 1;
                                        }

                                        else {
                                            votes[0] += 1;
                                        }
                                    }

                                    else {
                                        if (x[14] <= -4822.0) {
                                            votes[3] += 1;
                                        }

                                        else {
                                            votes[2] += 1;
                                        }
                                    }
                                }

                                else {
                                    if (x[6] <= 1888.0) {
                                        if (x[57] <= 3597.0) {
                                            if (x[47] <= -1489.5) {
                                                votes[3] += 1;
                                            }

                                            else {
                                                if (x[53] <= 3486.0) {
                                                    if (x[50] <= 4415.5) {
                                                        votes[0] += 1;
                                                    }

                                                    else {
                                                        votes[3] += 1;
                                                    }
                                                }

                                                else {
                                                    if (x[17] <= -778.0) {
                                                        votes[1] += 1;
                                                    }

                                                    else {
                                                        votes[3] += 1;
                                                    }
                                                }
                                            }
                                        }

                                        else {
                                            votes[1] += 1;
                                        }
                                    }

                                    else {
                                        if (x[58] <= 143.0) {
                                            if (x[53] <= 1882.5) {
                                                if (x[53] <= -64.5) {
                                                    if (x[52] <= 953.5) {
                                                        votes[1] += 1;
                                                    }

                                                    else {
                                                        votes[3] += 1;
                                                    }
                                                }

                                                else {
                                                    votes[0] += 1;
                                                }
                                            }

                                            else {
                                                if (x[16] <= 3668.0) {
                                                    if (x[33] <= -2932.5) {
                                                        votes[2] += 1;
                                                    }

                                                    else {
                                                        votes[1] += 1;
                                                    }
                                                }

                                                else {
                                                    votes[3] += 1;
                                                }
                                            }
                                        }

                                        else {
                                            if (x[24] <= 14020.0) {
                                                if (x[3] <= 3464.0) {
                                                    votes[2] += 1;
                                                }

                                                else {
                                                    votes[1] += 1;
                                                }
                                            }

                                            else {
                                                votes[1] += 1;
                                            }
                                        }
                                    }
                                }
                            }
                        }

                        // tree #2
                        if (x[53] <= -1282.5) {
                            if (x[23] <= 15986.0) {
                                if (x[39] <= -671.5) {
                                    if (x[10] <= 1714.0) {
                                        if (x[32] <= 5766.5) {
                                            votes[3] += 1;
                                        }

                                        else {
                                            votes[1] += 1;
                                        }
                                    }

                                    else {
                                        if (x[18] <= -2194.0) {
                                            votes[3] += 1;
                                        }

                                        else {
                                            votes[1] += 1;
                                        }
                                    }
                                }

                                else {
                                    if (x[13] <= -858.0) {
                                        if (x[43] <= -855.0) {
                                            votes[3] += 1;
                                        }

                                        else {
                                            if (x[20] <= 16102.0) {
                                                if (x[2] <= -1760.0) {
                                                    votes[3] += 1;
                                                }

                                                else {
                                                    if (x[8] <= -1424.0) {
                                                        votes[3] += 1;
                                                    }

                                                    else {
                                                        votes[1] += 1;
                                                    }
                                                }
                                            }

                                            else {
                                                votes[3] += 1;
                                            }
                                        }
                                    }

                                    else {
                                        if (x[17] <= -1312.0) {
                                            votes[3] += 1;
                                        }

                                        else {
                                            if (x[46] <= 452.5) {
                                                if (x[26] <= 15558.0) {
                                                    if (x[31] <= 2491.0) {
                                                        if (x[45] <= -1489.5) {
                                                            votes[3] += 1;
                                                        }

                                                        else {
                                                            if (x[28] <= 16656.0) {
                                                                if (x[22] <= 16874.0) {
                                                                    votes[0] += 1;
                                                                }

                                                                else {
                                                                    votes[2] += 1;
                                                                }
                                                            }

                                                            else {
                                                                votes[3] += 1;
                                                            }
                                                        }
                                                    }

                                                    else {
                                                        if (x[4] <= 3400.0) {
                                                            votes[2] += 1;
                                                        }

                                                        else {
                                                            votes[1] += 1;
                                                        }
                                                    }
                                                }

                                                else {
                                                    if (x[38] <= -130.5) {
                                                        votes[1] += 1;
                                                    }

                                                    else {
                                                        votes[2] += 1;
                                                    }
                                                }
                                            }

                                            else {
                                                if (x[57] <= -5394.5) {
                                                    votes[1] += 1;
                                                }

                                                else {
                                                    if (x[33] <= 732.0) {
                                                        if (x[54] <= -1611.0) {
                                                            votes[2] += 1;
                                                        }

                                                        else {
                                                            if (x[16] <= 2124.0) {
                                                                votes[0] += 1;
                                                            }

                                                            else {
                                                                votes[3] += 1;
                                                            }
                                                        }
                                                    }

                                                    else {
                                                        votes[2] += 1;
                                                    }
                                                }
                                            }
                                        }
                                    }
                                }
                            }

                            else {
                                if (x[0] <= 3060.0) {
                                    if (x[31] <= -4506.5) {
                                        votes[1] += 1;
                                    }

                                    else {
                                        if (x[38] <= 2896.0) {
                                            if (x[50] <= -5639.5) {
                                                if (x[24] <= 14004.0) {
                                                    votes[3] += 1;
                                                }

                                                else {
                                                    votes[2] += 1;
                                                }
                                            }

                                            else {
                                                if (x[39] <= 1040.5) {
                                                    votes[3] += 1;
                                                }

                                                else {
                                                    if (x[8] <= -682.0) {
                                                        votes[3] += 1;
                                                    }

                                                    else {
                                                        votes[0] += 1;
                                                    }
                                                }
                                            }
                                        }

                                        else {
                                            votes[2] += 1;
                                        }
                                    }
                                }

                                else {
                                    if (x[7] <= 6668.0) {
                                        if (x[40] <= -13016.5) {
                                            votes[3] += 1;
                                        }

                                        else {
                                            votes[2] += 1;
                                        }
                                    }

                                    else {
                                        if (x[30] <= 1801.0) {
                                            votes[3] += 1;
                                        }

                                        else {
                                            votes[1] += 1;
                                        }
                                    }
                                }
                            }
                        }

                        else {
                            if (x[38] <= 907.5) {
                                if (x[54] <= 635.0) {
                                    if (x[28] <= 16390.0) {
                                        if (x[13] <= 4608.0) {
                                            if (x[32] <= 2508.0) {
                                                if (x[57] <= -1446.0) {
                                                    if (x[50] <= -217.5) {
                                                        votes[3] += 1;
                                                    }

                                                    else {
                                                        votes[2] += 1;
                                                    }
                                                }

                                                else {
                                                    if (x[38] <= -710.5) {
                                                        if (x[0] <= 756.0) {
                                                            if (x[55] <= -2955.5) {
                                                                votes[3] += 1;
                                                            }

                                                            else {
                                                                votes[0] += 1;
                                                            }
                                                        }

                                                        else {
                                                            if (x[55] <= 105.0) {
                                                                if (x[22] <= 15070.0) {
                                                                    votes[0] += 1;
                                                                }

                                                                else {
                                                                    votes[3] += 1;
                                                                }
                                                            }

                                                            else {
                                                                if (x[16] <= -240.0) {
                                                                    votes[1] += 1;
                                                                }

                                                                else {
                                                                    votes[2] += 1;
                                                                }
                                                            }
                                                        }
                                                    }

                                                    else {
                                                        if (x[55] <= 763.0) {
                                                            if (x[18] <= 3056.0) {
                                                                if (x[57] <= 1479.5) {
                                                                    if (x[53] <= -1194.0) {
                                                                        if (x[14] <= 2352.0) {
                                                                            votes[0] += 1;
                                                                        }

                                                                        else {
                                                                            votes[2] += 1;
                                                                        }
                                                                    }

                                                                    else {
                                                                        if (x[21] <= 16934.0) {
                                                                            if (x[9] <= 4232.0) {
                                                                                if (x[57] <= 670.0) {
                                                                                    if (x[4] <= 4472.0) {
                                                                                        votes[0] += 1;
                                                                                    }

                                                                                    else {
                                                                                        if (x[34] <= 81.0) {
                                                                                            votes[1] += 1;
                                                                                        }

                                                                                        else {
                                                                                            votes[0] += 1;
                                                                                        }
                                                                                    }
                                                                                }

                                                                                else {
                                                                                    if (x[54] <= -106.0) {
                                                                                        if (x[41] <= -285.0) {
                                                                                            votes[2] += 1;
                                                                                        }

                                                                                        else {
                                                                                            votes[0] += 1;
                                                                                        }
                                                                                    }

                                                                                    else {
                                                                                        votes[0] += 1;
                                                                                    }
                                                                                }
                                                                            }

                                                                            else {
                                                                                if (x[2] <= 3142.0) {
                                                                                    if (x[12] <= 1614.0) {
                                                                                        votes[2] += 1;
                                                                                    }

                                                                                    else {
                                                                                        votes[0] += 1;
                                                                                    }
                                                                                }

                                                                                else {
                                                                                    votes[0] += 1;
                                                                                }
                                                                            }
                                                                        }

                                                                        else {
                                                                            votes[3] += 1;
                                                                        }
                                                                    }
                                                                }

                                                                else {
                                                                    if (x[19] <= 992.0) {
                                                                        votes[1] += 1;
                                                                    }

                                                                    else {
                                                                        votes[0] += 1;
                                                                    }
                                                                }
                                                            }

                                                            else {
                                                                if (x[16] <= 950.0) {
                                                                    votes[3] += 1;
                                                                }

                                                                else {
                                                                    votes[0] += 1;
                                                                }
                                                            }
                                                        }

                                                        else {
                                                            if (x[8] <= 1006.0) {
                                                                votes[1] += 1;
                                                            }

                                                            else {
                                                                votes[0] += 1;
                                                            }
                                                        }
                                                    }
                                                }
                                            }

                                            else {
                                                votes[1] += 1;
                                            }
                                        }

                                        else {
                                            votes[3] += 1;
                                        }
                                    }

                                    else {
                                        if (x[7] <= 3320.0) {
                                            votes[3] += 1;
                                        }

                                        else {
                                            votes[2] += 1;
                                        }
                                    }
                                }

                                else {
                                    if (x[21] <= 14288.0) {
                                        if (x[13] <= -1358.0) {
                                            votes[3] += 1;
                                        }

                                        else {
                                            if (x[40] <= -590.5) {
                                                if (x[37] <= 127.5) {
                                                    if (x[48] <= -1442.0) {
                                                        votes[1] += 1;
                                                    }

                                                    else {
                                                        votes[2] += 1;
                                                    }
                                                }

                                                else {
                                                    votes[0] += 1;
                                                }
                                            }

                                            else {
                                                if (x[55] <= 1952.5) {
                                                    if (x[32] <= -2508.5) {
                                                        votes[2] += 1;
                                                    }

                                                    else {
                                                        if (x[31] <= -871.5) {
                                                            votes[3] += 1;
                                                        }

                                                        else {
                                                            votes[0] += 1;
                                                        }
                                                    }
                                                }

                                                else {
                                                    votes[2] += 1;
                                                }
                                            }
                                        }
                                    }

                                    else {
                                        if (x[52] <= 3408.0) {
                                            if (x[33] <= -1755.5) {
                                                if (x[0] <= 2756.0) {
                                                    votes[1] += 1;
                                                }

                                                else {
                                                    votes[2] += 1;
                                                }
                                            }

                                            else {
                                                if (x[3] <= 1330.0) {
                                                    if (x[8] <= 2876.0) {
                                                        if (x[35] <= 1378.5) {
                                                            votes[0] += 1;
                                                        }

                                                        else {
                                                            if (x[49] <= -13.0) {
                                                                votes[1] += 1;
                                                            }

                                                            else {
                                                                votes[2] += 1;
                                                            }
                                                        }
                                                    }

                                                    else {
                                                        if (x[39] <= 1487.5) {
                                                            votes[2] += 1;
                                                        }

                                                        else {
                                                            votes[3] += 1;
                                                        }
                                                    }
                                                }

                                                else {
                                                    if (x[16] <= 1648.0) {
                                                        if (x[0] <= 5362.0) {
                                                            if (x[34] <= 257.0) {
                                                                if (x[55] <= 2079.5) {
                                                                    votes[0] += 1;
                                                                }

                                                                else {
                                                                    votes[1] += 1;
                                                                }
                                                            }

                                                            else {
                                                                votes[1] += 1;
                                                            }
                                                        }

                                                        else {
                                                            votes[0] += 1;
                                                        }
                                                    }

                                                    else {
                                                        votes[0] += 1;
                                                    }
                                                }
                                            }
                                        }

                                        else {
                                            if (x[31] <= 1611.0) {
                                                votes[1] += 1;
                                            }

                                            else {
                                                if (x[9] <= 992.0) {
                                                    if (x[52] <= 5570.0) {
                                                        votes[0] += 1;
                                                    }

                                                    else {
                                                        votes[3] += 1;
                                                    }
                                                }

                                                else {
                                                    if (x[25] <= 12064.0) {
                                                        votes[2] += 1;
                                                    }

                                                    else {
                                                        votes[1] += 1;
                                                    }
                                                }
                                            }
                                        }
                                    }
                                }
                            }

                            else {
                                if (x[13] <= 3068.0) {
                                    if (x[27] <= 16990.0) {
                                        if (x[52] <= 263.5) {
                                            if (x[2] <= 3174.0) {
                                                if (x[55] <= 1284.5) {
                                                    if (x[8] <= 6640.0) {
                                                        votes[0] += 1;
                                                    }

                                                    else {
                                                        votes[3] += 1;
                                                    }
                                                }

                                                else {
                                                    if (x[35] <= 2541.0) {
                                                        votes[1] += 1;
                                                    }

                                                    else {
                                                        votes[2] += 1;
                                                    }
                                                }
                                            }

                                            else {
                                                votes[1] += 1;
                                            }
                                        }

                                        else {
                                            if (x[33] <= -4031.5) {
                                                if (x[41] <= 5141.5) {
                                                    votes[2] += 1;
                                                }

                                                else {
                                                    votes[3] += 1;
                                                }
                                            }

                                            else {
                                                if (x[50] <= -2783.0) {
                                                    votes[3] += 1;
                                                }

                                                else {
                                                    if (x[0] <= -3236.0) {
                                                        votes[3] += 1;
                                                    }

                                                    else {
                                                        if (x[43] <= 1699.0) {
                                                            votes[1] += 1;
                                                        }

                                                        else {
                                                            votes[2] += 1;
                                                        }
                                                    }
                                                }
                                            }
                                        }
                                    }

                                    else {
                                        if (x[55] <= -1082.0) {
                                            if (x[20] <= 11316.0) {
                                                votes[3] += 1;
                                            }

                                            else {
                                                votes[2] += 1;
                                            }
                                        }

                                        else {
                                            if (x[38] <= 2655.5) {
                                                if (x[36] <= -2960.0) {
                                                    if (x[58] <= 1944.5) {
                                                        votes[3] += 1;
                                                    }

                                                    else {
                                                        votes[1] += 1;
                                                    }
                                                }

                                                else {
                                                    votes[2] += 1;
                                                }
                                            }

                                            else {
                                                votes[1] += 1;
                                            }
                                        }
                                    }
                                }

                                else {
                                    if (x[47] <= -981.5) {
                                        votes[3] += 1;
                                    }

                                    else {
                                        if (x[35] <= 48.5) {
                                            votes[3] += 1;
                                        }

                                        else {
                                            if (x[30] <= 412.5) {
                                                if (x[46] <= 620.0) {
                                                    votes[0] += 1;
                                                }

                                                else {
                                                    votes[3] += 1;
                                                }
                                            }

                                            else {
                                                votes[0] += 1;
                                            }
                                        }
                                    }
                                }
                            }
                        }

                        // tree #3
                        if (x[38] <= 908.0) {
                            if (x[39] <= -606.5) {
                                if (x[0] <= -1494.0) {
                                    if (x[50] <= -5317.0) {
                                        if (x[1] <= -210.0) {
                                            votes[1] += 1;
                                        }

                                        else {
                                            votes[3] += 1;
                                        }
                                    }

                                    else {
                                        if (x[12] <= -1644.0) {
                                            votes[3] += 1;
                                        }

                                        else {
                                            votes[2] += 1;
                                        }
                                    }
                                }

                                else {
                                    if (x[54] <= -3455.0) {
                                        if (x[59] <= 5126.5) {
                                            if (x[41] <= 6723.0) {
                                                if (x[21] <= 14774.0) {
                                                    votes[1] += 1;
                                                }

                                                else {
                                                    if (x[27] <= 13968.0) {
                                                        votes[1] += 1;
                                                    }

                                                    else {
                                                        votes[3] += 1;
                                                    }
                                                }
                                            }

                                            else {
                                                votes[3] += 1;
                                            }
                                        }

                                        else {
                                            votes[3] += 1;
                                        }
                                    }

                                    else {
                                        if (x[8] <= 3300.0) {
                                            if (x[16] <= 18.0) {
                                                if (x[26] <= 14470.0) {
                                                    votes[3] += 1;
                                                }

                                                else {
                                                    if (x[17] <= -4158.0) {
                                                        votes[3] += 1;
                                                    }

                                                    else {
                                                        votes[1] += 1;
                                                    }
                                                }
                                            }

                                            else {
                                                if (x[47] <= 3200.5) {
                                                    if (x[34] <= -2750.0) {
                                                        if (x[6] <= 3048.0) {
                                                            votes[1] += 1;
                                                        }

                                                        else {
                                                            votes[2] += 1;
                                                        }
                                                    }

                                                    else {
                                                        if (x[38] <= -2492.5) {
                                                            votes[3] += 1;
                                                        }

                                                        else {
                                                            if (x[58] <= 969.5) {
                                                                if (x[24] <= 15234.0) {
                                                                    votes[0] += 1;
                                                                }

                                                                else {
                                                                    if (x[12] <= 1156.0) {
                                                                        votes[2] += 1;
                                                                    }

                                                                    else {
                                                                        votes[0] += 1;
                                                                    }
                                                                }
                                                            }

                                                            else {
                                                                if (x[6] <= 654.0) {
                                                                    votes[2] += 1;
                                                                }

                                                                else {
                                                                    if (x[46] <= 101.5) {
                                                                        votes[3] += 1;
                                                                    }

                                                                    else {
                                                                        votes[1] += 1;
                                                                    }
                                                                }
                                                            }
                                                        }
                                                    }
                                                }

                                                else {
                                                    votes[3] += 1;
                                                }
                                            }
                                        }

                                        else {
                                            if (x[7] <= -2264.0) {
                                                votes[3] += 1;
                                            }

                                            else {
                                                if (x[42] <= -4333.0) {
                                                    votes[3] += 1;
                                                }

                                                else {
                                                    votes[2] += 1;
                                                }
                                            }
                                        }
                                    }
                                }
                            }

                            else {
                                if (x[26] <= 16068.0) {
                                    if (x[58] <= 848.5) {
                                        if (x[50] <= 3770.5) {
                                            if (x[50] <= -4059.0) {
                                                if (x[26] <= 13640.0) {
                                                    if (x[20] <= 17850.0) {
                                                        votes[3] += 1;
                                                    }

                                                    else {
                                                        votes[2] += 1;
                                                    }
                                                }

                                                else {
                                                    if (x[27] <= 16540.0) {
                                                        if (x[16] <= 2680.0) {
                                                            if (x[49] <= 1049.5) {
                                                                votes[2] += 1;
                                                            }

                                                            else {
                                                                if (x[28] <= 13878.0) {
                                                                    votes[2] += 1;
                                                                }

                                                                else {
                                                                    votes[0] += 1;
                                                                }
                                                            }
                                                        }

                                                        else {
                                                            votes[3] += 1;
                                                        }
                                                    }

                                                    else {
                                                        votes[3] += 1;
                                                    }
                                                }
                                            }

                                            else {
                                                if (x[49] <= 2276.0) {
                                                    if (x[42] <= -2418.5) {
                                                        votes[3] += 1;
                                                    }

                                                    else {
                                                        if (x[28] <= 16588.0) {
                                                            if (x[16] <= 3202.0) {
                                                                if (x[56] <= -2338.5) {
                                                                    votes[2] += 1;
                                                                }

                                                                else {
                                                                    if (x[39] <= -378.5) {
                                                                        if (x[58] <= -1539.5) {
                                                                            votes[2] += 1;
                                                                        }

                                                                        else {
                                                                            if (x[36] <= -359.0) {
                                                                                if (x[52] <= 247.5) {
                                                                                    votes[2] += 1;
                                                                                }

                                                                                else {
                                                                                    votes[0] += 1;
                                                                                }
                                                                            }

                                                                            else {
                                                                                votes[0] += 1;
                                                                            }
                                                                        }
                                                                    }

                                                                    else {
                                                                        if (x[43] <= 1564.0) {
                                                                            if (x[21] <= 16832.0) {
                                                                                if (x[51] <= -40.5) {
                                                                                    votes[0] += 1;
                                                                                }

                                                                                else {
                                                                                    if (x[36] <= -382.5) {
                                                                                        if (x[58] <= -641.0) {
                                                                                            votes[2] += 1;
                                                                                        }

                                                                                        else {
                                                                                            votes[0] += 1;
                                                                                        }
                                                                                    }

                                                                                    else {
                                                                                        if (x[23] <= 14618.0) {
                                                                                            if (x[51] <= -13.0) {
                                                                                                if (x[10] <= 1418.0) {
                                                                                                    votes[0] += 1;
                                                                                                }

                                                                                                else {
                                                                                                    votes[3] += 1;
                                                                                                }
                                                                                            }

                                                                                            else {
                                                                                                votes[0] += 1;
                                                                                            }
                                                                                        }

                                                                                        else {
                                                                                            votes[0] += 1;
                                                                                        }
                                                                                    }
                                                                                }
                                                                            }

                                                                            else {
                                                                                if (x[50] <= -5.0) {
                                                                                    votes[2] += 1;
                                                                                }

                                                                                else {
                                                                                    votes[0] += 1;
                                                                                }
                                                                            }
                                                                        }

                                                                        else {
                                                                            if (x[52] <= -448.5) {
                                                                                votes[2] += 1;
                                                                            }

                                                                            else {
                                                                                votes[0] += 1;
                                                                            }
                                                                        }
                                                                    }
                                                                }
                                                            }

                                                            else {
                                                                if (x[16] <= 3464.0) {
                                                                    votes[3] += 1;
                                                                }

                                                                else {
                                                                    if (x[20] <= 17210.0) {
                                                                        votes[0] += 1;
                                                                    }

                                                                    else {
                                                                        votes[3] += 1;
                                                                    }
                                                                }
                                                            }
                                                        }

                                                        else {
                                                            if (x[9] <= 4794.0) {
                                                                if (x[40] <= 2301.5) {
                                                                    votes[3] += 1;
                                                                }

                                                                else {
                                                                    votes[0] += 1;
                                                                }
                                                            }

                                                            else {
                                                                votes[2] += 1;
                                                            }
                                                        }
                                                    }
                                                }

                                                else {
                                                    if (x[39] <= 1778.5) {
                                                        votes[3] += 1;
                                                    }

                                                    else {
                                                        if (x[24] <= 13920.0) {
                                                            votes[1] += 1;
                                                        }

                                                        else {
                                                            votes[0] += 1;
                                                        }
                                                    }
                                                }
                                            }
                                        }

                                        else {
                                            if (x[3] <= 3776.0) {
                                                if (x[49] <= 5180.5) {
                                                    if (x[55] <= 2110.0) {
                                                        votes[3] += 1;
                                                    }

                                                    else {
                                                        votes[1] += 1;
                                                    }
                                                }

                                                else {
                                                    votes[1] += 1;
                                                }
                                            }

                                            else {
                                                if (x[8] <= 1850.0) {
                                                    votes[3] += 1;
                                                }

                                                else {
                                                    votes[1] += 1;
                                                }
                                            }
                                        }
                                    }

                                    else {
                                        if (x[44] <= 1602.5) {
                                            if (x[49] <= -2508.5) {
                                                if (x[44] <= 78.0) {
                                                    votes[3] += 1;
                                                }

                                                else {
                                                    votes[1] += 1;
                                                }
                                            }

                                            else {
                                                if (x[26] <= 14720.0) {
                                                    if (x[41] <= -265.5) {
                                                        if (x[29] <= 13582.0) {
                                                            votes[3] += 1;
                                                        }

                                                        else {
                                                            if (x[30] <= 981.0) {
                                                                votes[1] += 1;
                                                            }

                                                            else {
                                                                if (x[10] <= 3108.0) {
                                                                    votes[0] += 1;
                                                                }

                                                                else {
                                                                    votes[2] += 1;
                                                                }
                                                            }
                                                        }
                                                    }

                                                    else {
                                                        votes[0] += 1;
                                                    }
                                                }

                                                else {
                                                    if (x[55] <= -244.5) {
                                                        votes[0] += 1;
                                                    }

                                                    else {
                                                        if (x[3] <= 1214.0) {
                                                            if (x[1] <= 572.0) {
                                                                votes[1] += 1;
                                                            }

                                                            else {
                                                                votes[0] += 1;
                                                            }
                                                        }

                                                        else {
                                                            votes[1] += 1;
                                                        }
                                                    }
                                                }
                                            }
                                        }

                                        else {
                                            votes[3] += 1;
                                        }
                                    }
                                }

                                else {
                                    if (x[59] <= 1825.5) {
                                        if (x[58] <= -2348.5) {
                                            if (x[28] <= 16070.0) {
                                                votes[3] += 1;
                                            }

                                            else {
                                                votes[2] += 1;
                                            }
                                        }

                                        else {
                                            if (x[53] <= 215.0) {
                                                votes[3] += 1;
                                            }

                                            else {
                                                votes[0] += 1;
                                            }
                                        }
                                    }

                                    else {
                                        if (x[47] <= 1947.0) {
                                            votes[1] += 1;
                                        }

                                        else {
                                            votes[2] += 1;
                                        }
                                    }
                                }
                            }
                        }

                        else {
                            if (x[25] <= 16150.0) {
                                if (x[6] <= -106.0) {
                                    if (x[36] <= 1519.5) {
